{
  "weights": [
    [
      0.12763559962972282,
      0.5222311141390994,
      -0.10914819965329697,
      0.24208608049103736,
      0.30297332236360347,
      -0.7032765442713087,
      -0.18054728206985177,
      -0.7772417373659105,
      0.4815380485424408,
      0.22962074069319133,
      0.13784662061834388,
      -0.4066536562655382,
      -0.8088274354202722,
      -1.4655175871932178,
      0.460136166230164,
      -0.007826557922338055,
      0.671134709889536,
      1.2595543758381318,
      -0.5661163363011655,
      1.4647511501188184,
      -1.2249715429724377,
      -0.43087198597195137,
      -0.4851941016749348,
      -0.043815799225628525,
      0.02974270791849131,
      0.8219265774292996,
      0.668132454726719,
      -1.265716671552346,
      -2.183428856713931,
      -1.6278316245463014,
      1.8216257831008198,
      -1.0485327578035428,
      1.4852794382974996,
      0.7215994607568996,
      0.5285856913381409,
      1.3456562384511215,
      -0.1116976639185282,
      1.2750950324048766,
      0.31361066043225094,
      -1.0068193874848412,
      -2.453976551940322,
      -0.9172388957621622,
      2.264015537899421,
      -1.4894068379052456,
      1.1373566779623572,
      0.3007698405108065,
      1.4606321362961436,
      1.294445553292067
    ],
    [
      -0.752068583506201,
      0.24681034278903483,
      -0.4954604736694896,
      -1.4038148400708848,
      1.491753197500897,
      0.34393479195393806,
      -0.22767546077349596,
      -1.0870706848650764,
      0.13687448870947333,
      0.4655092245618692,
      0.051892285266293754,
      -2.467144711751943,
      1.311422357744863,
      2.9286174486157543,
      -3.596194902462203,
      1.3162528109964011,
      -2.498264144785657,
      -1.5333825596326518,
      -0.6726582066952219,
      -3.203307369007806,
      2.1159988014711333,
      1.6175579464690932,
      -2.4709114911973447,
      -1.2000900794344513,
      -1.7239311607045225,
      1.7428641525016904,
      0.7006149436193891,
      -1.1087245067812015,
      -0.25427959619469426,
      0.13443755335650287,
      -1.2202535766446154,
      -0.7098551301312261,
      1.5311023416096265,
      -0.19746686127121996,
      -1.542720224783807,
      1.2794559390249958
    ]
  ],
  "biases": [
    [
      0.137777588485574,
      1.0658772758735218,
      -0.13086403329670096,
      0.7629145972308154,
      2.887873753950363,
      -1.2964505072226107,
      -2.5034880649563687,
      -1.3725619747538076,
      1.1930908548894417,
      0.003379259135890057,
      -0.8172027008172358,
      -1.1048940394925915
    ],
    [
      -0.3298982739479487,
      -0.6813890426189366,
      -1.0752620970463613
    ]
  ],
  "layer_shapes": [
    [
      4,
      12
    ],
    [
      12,
      3
    ]
  ],
  "config": {
    "inputNeurons": 4,
    "outputNeurons": 3,
    "hiddenNeurons": 12,
    "numEpochs": 10000,
    "learningRate": 0.1,
    "seed": 42
  },
  "scaler_stats": {
    "mean": [
      5.870476190476188,
      3.0580952380952384,
      3.7752380952380946,
      1.203809523809524
    ],
    "std": [
      0.8249587359982155,
      0.42354084581367396,
      1.7701644234838185,
      0.7692821402696596
    ]
  },
  "label_names": {
    "0": "Ssetosa",
    "1": "Versicolor",
    "2": "Virginica"
  },
  "Metrics": {
    "train_loss": 99.04761904761905,
    "validation_loss": 95.83333333333334,
    "test_loss": 95.23809523809523,
    "train_accuracy": 0.011755287215310975,
    "validation_accuracy": 0.025119164098321708,
    "test_accuracy": 0.02743817021462144,
    "training_duration": 750514709,
    "timestamp": "2026-04-15T19:18:33.476124+01:00"
  }
}