{
  "weights": [
    [
      -0.10043702381470833,
      0.20591665589894345,
      0.06513200591400924,
      -0.43426839912902077,
      -0.46287407225119,
      0.03838467521358069,
      0.04461016658384328,
      -0.18079147179924793,
      -0.12997597835271404,
      0.32397204250034095,
      0.41250673056746884,
      -1.448609101282345,
      -0.09196507681260513,
      0.11376627671275626,
      0.4448609894612077,
      -0.4973902116933449,
      0.04809066147879768,
      1.3994644972097794,
      0.9605193650491377,
      0.5860760572337625,
      -0.98629729885717,
      0.8925140171650608,
      -0.24387327075916435,
      -1.0399377585269318,
      -0.43923947873259184,
      -0.22534260728363284,
      1.0725277680506056,
      -0.6855774933420735,
      -0.4635205134594962,
      0.1847511944538546,
      -1.035490424104975,
      1.0749732236320908,
      0.378384650269801,
      -0.47294504497219214,
      -1.259266217893452,
      0.6053883865126048,
      1.503343825001475,
      0.476714753746312,
      -0.7648615630863301,
      0.8449033280645505
    ],
    [
      1.2317979044812895,
      0.21649079867131782,
      -1.8793160819259414,
      -2.0181414926118886,
      1.4455287080623789,
      0.5046442073299041,
      -0.2054081726897388,
      -0.03269741420470655,
      0.059671494823326954,
      0.5393812797765645,
      0.04022809095036659,
      -1.4248196246981184,
      1.3533124866650115,
      0.3229044629926761,
      -1.5404976486555917,
      -0.9275850219017252,
      0.06727488021518585,
      -0.1303569220408953,
      -2.1162853555021823,
      -1.1640514912437805,
      2.0428254592764414,
      0.6994569438622544,
      -1.5605060341093604,
      -0.13327077638241275,
      0.3108398410504582,
      -0.8543070310065057,
      -1.2659522522484188,
      -0.17663784486672707,
      -0.7544945070269083,
      0.7534931240076735
    ]
  ],
  "biases": [
    [
      0.42071984210977836,
      0.8382437563583273,
      -0.014737890005511005,
      0.15193016328604755,
      0.33094487484745233,
      0.1461250139761331,
      -1.0234766903545853,
      -0.21282985057076892,
      -0.2233022221627247,
      -0.2260298781138545
    ],
    [
      -0.7526683071303322,
      -0.0278233546772346,
      -0.46129894647600356
    ]
  ],
  "layer_shapes": [
    [
      4,
      10
    ],
    [
      10,
      3
    ]
  ],
  "config": {
    "inputNeurons": 4,
    "outputNeurons": 3,
    "hiddenNeurons": 10,
    "numEpochs": 2000,
    "learningRate": 0.15,
    "seed": 42
  },
  "scaler_stats": {
    "mean": [
      5.81904761904762,
      3.0495238095238095,
      3.7638095238095217,
      1.2000000000000002
    ],
    "std": [
      0.8201155828058615,
      0.4320766707809004,
      1.761066982286527,
      0.7633260552782585
    ]
  },
  "label_names": {
    "0": "Setosa",
    "1": "Versicolor",
    "2": "Virginica"
  },
  "Metrics": {
    "train_loss": 0.06468018237202747,
    "validation_loss": 0.062126151930926375,
    "test_loss": 0.07294245764315507,
    "train_accuracy": 92.38095238095238,
    "validation_accuracy": 100,
    "test_accuracy": 85.71428571428571,
    "training_duration": 134420792,
    "timestamp": "2026-04-16T19:18:45.363846+01:00"
  }
}